FANN_FLO_2.1
num_layers=3
learning_rate=0,700000
connection_rate=1,000000
network_type=0
learning_momentum=0,000000
training_algorithm=0
train_error_function=1
train_stop_function=0
cascade_output_change_fraction=0,010000
quickprop_decay=-0,000100
quickprop_mu=1,750000
rprop_increase_factor=1,200000
rprop_decrease_factor=0,500000
rprop_delta_min=0,000000
rprop_delta_max=50,000000
rprop_delta_zero=0,100000
cascade_output_stagnation_epochs=12
cascade_candidate_change_fraction=0,010000
cascade_candidate_stagnation_epochs=12
cascade_max_out_epochs=150
cascade_min_out_epochs=50
cascade_max_cand_epochs=150
cascade_min_cand_epochs=50
cascade_num_candidate_groups=2
bit_fail_limit=3,49999994039535522461e-01
cascade_candidate_limit=1,00000000000000000000e+03
cascade_weight_multiplier=4,00000005960464477539e-01
cascade_activation_functions_count=10
cascade_activation_functions=3 5 7 8 10 11 14 15 16 17 
cascade_activation_steepnesses_count=4
cascade_activation_steepnesses=2,50000000000000000000e-01 5,00000000000000000000e-01 7,50000000000000000000e-01 1,00000000000000000000e+00 
layer_sizes=20 16 2 
scale_included=0
neurons (num_inputs, activation_function, activation_steepness)=(0, 0, 0,00000000000000000000e+00) (0, 0, 0,00000000000000000000e+00) (0, 0, 0,00000000000000000000e+00) (0, 0, 0,00000000000000000000e+00) (0, 0, 0,00000000000000000000e+00) (0, 0, 0,00000000000000000000e+00) (0, 0, 0,00000000000000000000e+00) (0, 0, 0,00000000000000000000e+00) (0, 0, 0,00000000000000000000e+00) (0, 0, 0,00000000000000000000e+00) (0, 0, 0,00000000000000000000e+00) (0, 0, 0,00000000000000000000e+00) (0, 0, 0,00000000000000000000e+00) (0, 0, 0,00000000000000000000e+00) (0, 0, 0,00000000000000000000e+00) (0, 0, 0,00000000000000000000e+00) (0, 0, 0,00000000000000000000e+00) (0, 0, 0,00000000000000000000e+00) (0, 0, 0,00000000000000000000e+00) (0, 0, 0,00000000000000000000e+00) (20, 5, 5,00000000000000000000e-01) (20, 5, 5,00000000000000000000e-01) (20, 5, 5,00000000000000000000e-01) (20, 5, 5,00000000000000000000e-01) (20, 5, 5,00000000000000000000e-01) (20, 5, 5,00000000000000000000e-01) (20, 5, 5,00000000000000000000e-01) (20, 5, 5,00000000000000000000e-01) (20, 5, 5,00000000000000000000e-01) (20, 5, 5,00000000000000000000e-01) (20, 5, 5,00000000000000000000e-01) (20, 5, 5,00000000000000000000e-01) (20, 5, 5,00000000000000000000e-01) (20, 5, 5,00000000000000000000e-01) (20, 5, 5,00000000000000000000e-01) (0, 5, 0,00000000000000000000e+00) (16, 5, 5,00000000000000000000e-01) (0, 5, 0,00000000000000000000e+00) 
connections (connected_to_neuron, weight)=(0, 7,85751581192016601562e-01) (1, 6,61908313632011413574e-02) (2, 8,06032776832580566406e-01) (3, 7,35851466655731201172e-01) (4, 1,58781021833419799805e-01) (5, -7,49541446566581726074e-02) (6, -1,67386427521705627441e-01) (7, 2,39621430635452270508e-01) (8, 2,46228948235511779785e-01) (9, 5,89704811573028564453e-01) (10, 2,71502405405044555664e-01) (11, 5,59724926948547363281e-01) (12, 1,94778025150299072266e-01) (13, 1,32639080286026000977e-01) (14, 1,44458219408988952637e-01) (15, 3,58674556016921997070e-01) (16, 6,68630063533782958984e-01) (17, 5,20069897174835205078e-01) (18, 2,87159740924835205078e-01) (19, 1,78855627775192260742e-01) (0, 1,94224104285240173340e-01) (1, 5,37850737571716308594e-01) (2, 2,71673858165740966797e-01) (3, 1,35460093617439270020e-01) (4, 5,98045647144317626953e-01) (5, 1,93686127662658691406e-01) (6, 2,04951211810111999512e-01) (7, 4,23455625772476196289e-01) (8, 1,04006445035338401794e-02) (9, 2,96099990606307983398e-01) (10, 5,32528851181268692017e-03) (11, 1,63733616471290588379e-01) (12, 4,74789440631866455078e-01) (13, 8,02695099264383316040e-03) (14, 1,39647588133811950684e-01) (15, 7,04237371683120727539e-02) (16, 5,30415996909141540527e-02) (17, 1,85505464673042297363e-01) (18, 5,59583783149719238281e-01) (19, -2,88859724998474121094e-01) (0, 4,22227829694747924805e-01) (1, 2,82087624073028564453e-01) (2, 2,09223151206970214844e-01) (3, 1,54311791062355041504e-01) (4, 5,65419316291809082031e-01) (5, 4,52407687902450561523e-01) (6, 2,67773777246475219727e-01) (7, 2,91373699903488159180e-01) (8, 1,33270889520645141602e-01) (9, 1,00528836250305175781e-01) (10, 4,62872721254825592041e-02) (11, 3,24407726526260375977e-01) (12, 4,19352233409881591797e-01) (13, 4,36413407325744628906e-01) (14, -2,38225013017654418945e-02) (15, 2,49119505286216735840e-01) (16, 2,70238760858774185181e-02) (17, 3,65007102489471435547e-01) (18, 3,27825218439102172852e-01) (19, -2,22269326448440551758e-01) (0, 5,56111812591552734375e-01) (1, -2,26570919156074523926e-01) (2, 5,48657357692718505859e-01) (3, -2,05270107835531234741e-03) (4, 2,52043515443801879883e-01) (5, 2,11886763572692871094e-01) (6, -2,53239393234252929688e-01) (7, 3,51473569869995117188e-01) (8, 4,61610287427902221680e-01) (9, 2,58401304483413696289e-01) (10, 2,07306202501058578491e-02) (11, 6,29059910774230957031e-01) (12, 4,18385267257690429688e-01) (13, 4,01040881872177124023e-01) (14, 4,73403275012969970703e-01) (15, -1,12271979451179504395e-01) (16, 3,56034189462661743164e-01) (17, 1,39252483844757080078e-01) (18, 5,81240534782409667969e-01) (19, 1,17981992661952972412e-02) (0, 3,37038993835449218750e-01) (1, 3,14130932092666625977e-01) (2, 2,66618698835372924805e-01) (3, 2,17432066798210144043e-01) (4, 2,38470062613487243652e-01) (5, 4,79183167219161987305e-01) (6, 7,95414805412292480469e-01) (7, 1,41683578491210937500e-01) (8, 1,17047568783164024353e-02) (9, -4,56701405346393585205e-02) (10, 2,38725572824478149414e-01) (11, 1,08672365546226501465e-01) (12, 4,78885710239410400391e-01) (13, 3,34444403648376464844e-01) (14, 2,24872812628746032715e-01) (15, 3,02562683820724487305e-01) (16, -1,24153375625610351562e-01) (17, 1,12045250833034515381e-01) (18, 3,64107549190521240234e-01) (19, 1,16965822875499725342e-01) (0, 3,82291942834854125977e-01) (1, 5,55570237338542938232e-02) (2, 1,31806090474128723145e-01) (3, 5,06614327430725097656e-01) (4, 1,50728106498718261719e-01) (5, 9,14728045463562011719e-02) (6, -1,23789772391319274902e-01) (7, 3,63157153129577636719e-01) (8, 1,67810961604118347168e-01) (9, 1,10387757420539855957e-01) (10, 1,29846543073654174805e-01) (11, 2,02598780393600463867e-01) (12, 1,93334251642227172852e-01) (13, 5,21314442157745361328e-01) (14, 2,63326942920684814453e-01) (15, 6,06369115412235260010e-02) (16, 4,80594962835311889648e-01) (17, 3,36881428956985473633e-01) (18, 5,72595238685607910156e-01) (19, -4,88645076751708984375e-01) (0, 1,37810325622558593750e+00) (1, -1,09265394508838653564e-01) (2, 8,46893012523651123047e-01) (3, 7,03711748123168945312e-01) (4, -1,67795717716217041016e-02) (5, 1,72772631049156188965e-01) (6, -4,27746802568435668945e-01) (7, 7,67062976956367492676e-02) (8, 5,10054051876068115234e-01) (9, 4,49274778366088867188e-01) (10, 2,86858737468719482422e-01) (11, 8,37260305881500244141e-01) (12, 9,97924581170082092285e-02) (13, 4,52162772417068481445e-01) (14, 5,38058936595916748047e-01) (15, 1,00010596215724945068e-01) (16, 1,62902131676673889160e-01) (17, 6,88070714473724365234e-01) (18, 2,98742324113845825195e-01) (19, 1,17061480879783630371e-01) (0, 6,75905942916870117188e-01) (1, 1,21076501905918121338e-01) (2, 1,51634633541107177734e-01) (3, 7,94655680656433105469e-02) (4, 2,93173164129257202148e-01) (5, 4,44415986537933349609e-01) (6, 2,28778749704360961914e-01) (7, 1,79151460528373718262e-01) (8, 1,43987312912940979004e-01) (9, 4,05061244964599609375e-01) (10, 2,00167611241340637207e-01) (11, 2,10725218057632446289e-01) (12, 7,71141573786735534668e-02) (13, 1,53515905141830444336e-01) (14, 4,93804752826690673828e-01) (15, -2,81412191689014434814e-02) (16, 4,26965475082397460938e-01) (17, 1,84719666838645935059e-01) (18, 2,82972723245620727539e-01) (19, -4,37806636095046997070e-01) (0, 1,73959881067276000977e-01) (1, 1,08282238245010375977e-01) (2, 6,23577654361724853516e-01) (3, 2,14624032378196716309e-01) (4, 2,16354295611381530762e-01) (5, 3,67833554744720458984e-01) (6, -2,11985278874635696411e-02) (7, 9,07579064369201660156e-02) (8, 2,94014811515808105469e-01) (9, 8,39370787143707275391e-02) (10, 1,61399126052856445312e-01) (11, 1,94170013070106506348e-01) (12, 1,48421034216880798340e-01) (13, 4,01623427867889404297e-01) (14, 2,13635250926017761230e-01) (15, 3,41534495353698730469e-01) (16, 3,23943495750427246094e-01) (17, 2,23955690860748291016e-01) (18, 1,94112896919250488281e-01) (19, 3,15816968679428100586e-01) (0, 7,89399623870849609375e-01) (1, 1,74043513834476470947e-02) (2, 1,55902534723281860352e-01) (3, 5,51197886466979980469e-01) (4, 4,32535320520401000977e-01) (5, -4,34319749474525451660e-02) (6, -2,56922096014022827148e-01) (7, 1,67919665575027465820e-01) (8, 3,02236050367355346680e-01) (9, 4,07768100500106811523e-01) (10, 3,12017768621444702148e-01) (11, 4,52313393354415893555e-01) (12, 5,66608369350433349609e-01) (13, 3,70276302099227905273e-01) (14, 4,53452855348587036133e-01) (15, -9,13773849606513977051e-02) (16, 2,60495245456695556641e-01) (17, 1,16907097399234771729e-01) (18, 3,18105012178421020508e-01) (19, 1,82063117623329162598e-01) (0, 3,91705781221389770508e-01) (1, 5,07438480854034423828e-01) (2, -1,66294500231742858887e-01) (3, 5,24569451808929443359e-01) (4, 1,25331473350524902344e+00) (5, 7,55756735801696777344e-01) (6, 1,27288603782653808594e+00) (7, 5,77669106423854827881e-02) (8, -4,04710352420806884766e-01) (9, -1,30601152777671813965e-01) (10, -1,02286532521247863770e-01) (11, 2,98440754413604736328e-01) (12, -3,96048724651336669922e-01) (13, 5,54868817329406738281e-01) (14, 6,38839527964591979980e-02) (15, 1,93008303642272949219e-01) (16, -1,77169833332300186157e-02) (17, 8,95977556705474853516e-01) (18, 1,08503341674804687500e+00) (19, 6,77965819835662841797e-01) (0, 2,03541561961174011230e-01) (1, 5,52733123302459716797e-01) (2, -9,43933613598346710205e-03) (3, 2,89550930261611938477e-01) (4, 3,66200149059295654297e-01) (5, 2,27957516908645629883e-01) (6, 1,02515590190887451172e+00) (7, 1,72129750251770019531e-01) (8, -3,04562598466873168945e-01) (9, -1,32031306624412536621e-01) (10, -1,26240268349647521973e-01) (11, 4,96149919927120208740e-02) (12, 3,83769208565354347229e-03) (13, 1,78654715418815612793e-01) (14, -1,87290892004966735840e-01) (15, 6,21584206819534301758e-02) (16, 3,24453711509704589844e-01) (17, 3,26043546199798583984e-01) (18, 5,62333047389984130859e-01) (19, 3,18848252296447753906e-01) (0, 7,65652000904083251953e-01) (1, -2,27889195084571838379e-01) (2, 4,77784663438796997070e-01) (3, 3,01436096429824829102e-01) (4, 1,63582563400268554688e-01) (5, 2,97574341297149658203e-01) (6, -3,89785438776016235352e-01) (7, 5,74107527732849121094e-01) (8, 3,90765100717544555664e-01) (9, 9,18739855289459228516e-01) (10, 2,53884345293045043945e-01) (11, 1,23062610626220703125e+00) (12, 1,44690036773681640625e-01) (13, 3,46850961446762084961e-01) (14, 1,43305629491806030273e-01) (15, -3,55841547250747680664e-01) (16, 4,65644419193267822266e-01) (17, -1,63517557084560394287e-02) (18, 4,34474170207977294922e-01) (19, -8,37717764079570770264e-03) (0, 3,94656322896480560303e-03) (1, 5,13058304786682128906e-01) (2, 1,83025792241096496582e-01) (3, 2,36878216266632080078e-01) (4, -3,54984812438488006592e-02) (5, 1,91995427012443542480e-01) (6, 2,77441561222076416016e-01) (7, 6,09083056449890136719e-01) (8, 5,65296888351440429688e-01) (9, 9,77864712476730346680e-02) (10, 3,87612491846084594727e-01) (11, -3,72870340943336486816e-02) (12, 5,65904438495635986328e-01) (13, 1,83928951621055603027e-01) (14, 1,85771748423576354980e-01) (15, 1,81403234601020812988e-01) (16, 2,18773335218429565430e-01) (17, 3,19897741079330444336e-01) (18, 2,14743930846452713013e-02) (19, -2,13038865476846694946e-02) (0, 2,49589666724205017090e-01) (1, 4,99824821949005126953e-01) (2, 1,80297315120697021484e-01) (3, 4,35686498880386352539e-01) (4, 2,49840497970581054688e-01) (5, 3,94661039113998413086e-01) (6, 3,12675774097442626953e-01) (7, 9,05343070626258850098e-02) (8, 4,21516209840774536133e-01) (9, -1,05418816208839416504e-01) (10, 4,52269434928894042969e-01) (11, -1,46789252758026123047e-01) (12, 5,72582840919494628906e-01) (13, 1,44640758633613586426e-01) (14, 1,53478071093559265137e-01) (15, 5,04022300243377685547e-01) (16, 3,69382351636886596680e-01) (17, -3,46062406897544860840e-02) (18, 4,98281091451644897461e-01) (19, 3,96701581776142120361e-02) (20, -8,66172254085540771484e-01) (21, 1,63528650999069213867e-01) (22, -2,32222210615873336792e-02) (23, -7,33687341213226318359e-01) (24, 3,39323252439498901367e-01) (25, -3,44130039215087890625e-01) (26, -1,44166409969329833984e+00) (27, -3,92964929342269897461e-01) (28, -1,87166824936866760254e-01) (29, -6,43549144268035888672e-01) (30, 1,69073641300201416016e+00) (31, 7,41282343864440917969e-01) (32, -1,24083900451660156250e+00) (33, 4,09953653812408447266e-01) (34, 2,29551285505294799805e-01) (35, 1,12219184637069702148e-01) 
