FANN_FLO_2.1
num_layers=3
learning_rate=0,700000
connection_rate=1,000000
network_type=0
learning_momentum=0,000000
training_algorithm=0
train_error_function=1
train_stop_function=0
cascade_output_change_fraction=0,010000
quickprop_decay=-0,000100
quickprop_mu=1,750000
rprop_increase_factor=1,200000
rprop_decrease_factor=0,500000
rprop_delta_min=0,000000
rprop_delta_max=50,000000
rprop_delta_zero=0,100000
cascade_output_stagnation_epochs=12
cascade_candidate_change_fraction=0,010000
cascade_candidate_stagnation_epochs=12
cascade_max_out_epochs=150
cascade_min_out_epochs=50
cascade_max_cand_epochs=150
cascade_min_cand_epochs=50
cascade_num_candidate_groups=2
bit_fail_limit=3,49999994039535522461e-01
cascade_candidate_limit=1,00000000000000000000e+03
cascade_weight_multiplier=4,00000005960464477539e-01
cascade_activation_functions_count=10
cascade_activation_functions=3 5 7 8 10 11 14 15 16 17 
cascade_activation_steepnesses_count=4
cascade_activation_steepnesses=2,50000000000000000000e-01 5,00000000000000000000e-01 7,50000000000000000000e-01 1,00000000000000000000e+00 
layer_sizes=16 31 2 
scale_included=0
neurons (num_inputs, activation_function, activation_steepness)=(0, 0, 0,00000000000000000000e+00) (0, 0, 0,00000000000000000000e+00) (0, 0, 0,00000000000000000000e+00) (0, 0, 0,00000000000000000000e+00) (0, 0, 0,00000000000000000000e+00) (0, 0, 0,00000000000000000000e+00) (0, 0, 0,00000000000000000000e+00) (0, 0, 0,00000000000000000000e+00) (0, 0, 0,00000000000000000000e+00) (0, 0, 0,00000000000000000000e+00) (0, 0, 0,00000000000000000000e+00) (0, 0, 0,00000000000000000000e+00) (0, 0, 0,00000000000000000000e+00) (0, 0, 0,00000000000000000000e+00) (0, 0, 0,00000000000000000000e+00) (0, 0, 0,00000000000000000000e+00) (16, 5, 5,00000000000000000000e-01) (16, 5, 5,00000000000000000000e-01) (16, 5, 5,00000000000000000000e-01) (16, 5, 5,00000000000000000000e-01) (16, 5, 5,00000000000000000000e-01) (16, 5, 5,00000000000000000000e-01) (16, 5, 5,00000000000000000000e-01) (16, 5, 5,00000000000000000000e-01) (16, 5, 5,00000000000000000000e-01) (16, 5, 5,00000000000000000000e-01) (16, 5, 5,00000000000000000000e-01) (16, 5, 5,00000000000000000000e-01) (16, 5, 5,00000000000000000000e-01) (16, 5, 5,00000000000000000000e-01) (16, 5, 5,00000000000000000000e-01) (16, 5, 5,00000000000000000000e-01) (16, 5, 5,00000000000000000000e-01) (16, 5, 5,00000000000000000000e-01) (16, 5, 5,00000000000000000000e-01) (16, 5, 5,00000000000000000000e-01) (16, 5, 5,00000000000000000000e-01) (16, 5, 5,00000000000000000000e-01) (16, 5, 5,00000000000000000000e-01) (16, 5, 5,00000000000000000000e-01) (16, 5, 5,00000000000000000000e-01) (16, 5, 5,00000000000000000000e-01) (16, 5, 5,00000000000000000000e-01) (16, 5, 5,00000000000000000000e-01) (16, 5, 5,00000000000000000000e-01) (16, 5, 5,00000000000000000000e-01) (0, 5, 0,00000000000000000000e+00) (31, 5, 5,00000000000000000000e-01) (0, 5, 0,00000000000000000000e+00) 
connections (connected_to_neuron, weight)=(0, 6,95458799600601196289e-02) (1, 6,04663252830505371094e-01) (2, 4,92384672164916992188e-01) (3, 3,61342966556549072266e-01) (4, 7,12087750434875488281e-01) (5, 2,44115218520164489746e-01) (6, 1,55060932040214538574e-01) (7, -1,80787727236747741699e-01) (8, 3,38868349790573120117e-01) (9, 2,58672684431076049805e-01) (10, -4,28318418562412261963e-02) (11, 4,66220021247863769531e-01) (12, 1,02534495294094085693e-01) (13, 4,66269642114639282227e-01) (14, 5,05317747592926025391e-02) (15, -3,97566378116607666016e-01) (0, 5,05698800086975097656e-01) (1, 2,47470304369926452637e-01) (2, 4,50059264898300170898e-01) (3, 1,72506824135780334473e-01) (4, 2,64210730791091918945e-01) (5, -8,78321006894111633301e-03) (6, -1,77746176719665527344e-01) (7, 1,97553426027297973633e-01) (8, 2,01506942510604858398e-01) (9, 3,62348496913909912109e-01) (10, 3,71676713228225708008e-01) (11, 5,42720913887023925781e-01) (12, -5,86332753300666809082e-02) (13, 2,34831660985946655273e-01) (14, 7,53086388111114501953e-01) (15, -1,30373790860176086426e-01) (0, 5,29243826866149902344e-01) (1, 3,30001682043075561523e-01) (2, 2,51467317342758178711e-01) (3, 2,41642668843269348145e-01) (4, 2,77846693992614746094e-01) (5, -4,22290898859500885010e-02) (6, 5,35922825336456298828e-01) (7, 4,14146482944488525391e-01) (8, 3,90503257513046264648e-01) (9, 2,15471789240837097168e-01) (10, 4,61735755205154418945e-01) (11, 4,32729393243789672852e-01) (12, 4,46770116686820983887e-02) (13, 5,20511686801910400391e-01) (14, 7,36988663673400878906e-01) (15, 2,28269085288047790527e-01) (0, 2,95708745718002319336e-01) (1, 2,75109052658081054688e-01) (2, 3,24074745178222656250e-01) (3, 3,63343268632888793945e-01) (4, 2,88861513137817382812e-01) (5, 2,95345872640609741211e-01) (6, 1,65118575096130371094e-01) (7, 6,56046122312545776367e-02) (8, 1,01387664675712585449e-01) (9, 7,00387954711914062500e-02) (10, 5,39157211780548095703e-01) (11, 2,56435573101043701172e-01) (12, 5,70337772369384765625e-01) (13, 4,22995835542678833008e-01) (14, 1,99531763792037963867e-01) (15, -8,56882706284523010254e-02) (0, 2,32643127441406250000e-01) (1, 3,38089138269424438477e-01) (2, 1,79555770009756088257e-02) (3, 5,45523175969719886780e-03) (4, 5,65921306610107421875e-01) (5, 3,05594027042388916016e-01) (6, -2,05196544528007507324e-01) (7, -6,94349184632301330566e-02) (8, 3,00435960292816162109e-01) (9, 3,87249320745468139648e-01) (10, 1,59534011036157608032e-02) (11, 2,29069903492927551270e-01) (12, 4,01530891656875610352e-01) (13, 1,81222096085548400879e-01) (14, 3,36428016424179077148e-01) (15, -2,82972961664199829102e-01) (0, 9,11038696765899658203e-01) (1, 7,36391365528106689453e-01) (2, 3,75768572092056274414e-01) (3, 4,66051310300827026367e-01) (4, 2,30978578329086303711e-01) (5, 4,65981155633926391602e-01) (6, 7,17811822891235351562e-01) (7, 4,20992136001586914062e-01) (8, -3,25655043125152587891e-01) (9, 2,20483183860778808594e-01) (10, 4,28272008895874023438e-01) (11, 3,30735176801681518555e-01) (12, 3,07133853435516357422e-01) (13, 2,14768424630165100098e-01) (14, 1,17256743833422660828e-02) (15, 4,86204437911510467529e-02) (0, 6,65005207061767578125e-01) (1, 3,14440995454788208008e-01) (2, 6,46876096725463867188e-02) (3, 3,52551937103271484375e-01) (4, 4,67756032943725585938e-01) (5, 7,06896781921386718750e-02) (6, -9,46165025234222412109e-02) (7, 1,72004282474517822266e-01) (8, 1,73433780670166015625e-01) (9, 3,10887187719345092773e-01) (10, 3,11181209981441497803e-02) (11, 5,39465844631195068359e-01) (12, 3,00749838352203369141e-01) (13, 3,13544183969497680664e-01) (14, 8,38617324829101562500e-01) (15, 2,82346844673156738281e-01) (0, 5,50738155841827392578e-01) (1, 1,99797883629798889160e-01) (2, 4,36758518218994140625e-01) (3, 2,50539988279342651367e-01) (4, -2,59460266679525375366e-02) (5, 2,32141330838203430176e-01) (6, 2,50467836856842041016e-01) (7, 2,87012487649917602539e-01) (8, -4,72865924239158630371e-02) (9, 2,56815642118453979492e-01) (10, 1,27120003104209899902e-01) (11, 3,04839909076690673828e-01) (12, 4,77552145719528198242e-01) (13, 4,78437006473541259766e-01) (14, 2,69493430852890014648e-01) (15, -1,16946160793304443359e-01) (0, 1,60311520099639892578e-01) (1, 3,96516799926757812500e-01) (2, 1,01728402078151702881e-01) (3, 4,50845450162887573242e-01) (4, 1,96907669305801391602e-01) (5, 4,58778977394104003906e-01) (6, 2,36278444528579711914e-01) (7, -1,81011393666267395020e-01) (8, 1,64252012968063354492e-01) (9, 4,07134681940078735352e-01) (10, 7,10191547870635986328e-01) (11, 7,13430523872375488281e-01) (12, 4,80462908744812011719e-02) (13, 1,03773035109043121338e-01) (14, 8,08584928512573242188e-01) (15, 1,90568074584007263184e-01) (0, 1,03026545047760009766e+00) (1, 4,35554593801498413086e-01) (2, 3,37396934628486633301e-02) (3, 9,92017567157745361328e-01) (4, 2,59684175252914428711e-01) (5, 7,97200322151184082031e-01) (6, 6,09965026378631591797e-01) (7, 1,94020044803619384766e+00) (8, -5,58982133865356445312e-01) (9, 3,03564131259918212891e-01) (10, 8,91861915588378906250e-01) (11, 9,53354835510253906250e-01) (12, 6,81142508983612060547e-01) (13, 8,99458885192871093750e-01) (14, -2,55096495151519775391e-01) (15, -1,54139950871467590332e-01) (0, 9,37201559543609619141e-01) (1, 1,58225581049919128418e-01) (2, -1,05685842037200927734e+00) (3, 1,51843833923339843750e+00) (4, 6,48507893085479736328e-01) (5, 4,25219476222991943359e-01) (6, -1,25371658802032470703e+00) (7, 2,28056550025939941406e+00) (8, -1,02338516712188720703e+00) (9, 1,24630920588970184326e-01) (10, 1,39391148090362548828e+00) (11, 1,87918257713317871094e+00) (12, 5,88021099567413330078e-01) (13, 9,17179465293884277344e-01) (14, 3,33708584308624267578e-01) (15, -3,19183915853500366211e-01) (0, -3,56638282537460327148e-01) (1, 2,15100403875112533569e-02) (2, 4,05989140272140502930e-01) (3, 2,35187426209449768066e-01) (4, 9,29981470108032226562e-01) (5, 6,26320123672485351562e-01) (6, 6,85845613479614257812e-02) (7, -3,82853478193283081055e-01) (8, 1,22632098197937011719e+00) (9, 9,82400178909301757812e-02) (10, 3,90506833791732788086e-01) (11, 5,55888414382934570312e-01) (12, 1,13657690584659576416e-01) (13, -1,71960160136222839355e-01) (14, 6,81099951267242431641e-01) (15, 7,79231190681457519531e-02) (0, 1,06982864439487457275e-01) (1, 8,42676311731338500977e-02) (2, 6,45095407962799072266e-02) (3, 2,21255734562873840332e-01) (4, 9,19070839881896972656e-01) (5, 2,01625078916549682617e-01) (6, 5,79822026193141937256e-02) (7, -4,25050884485244750977e-01) (8, 7,69888281822204589844e-01) (9, 3,17907594144344329834e-02) (10, -1,49911884218454360962e-02) (11, 3,76798599958419799805e-01) (12, 4,05777662992477416992e-01) (13, 1,79184898734092712402e-01) (14, 6,47594690322875976562e-01) (15, -1,98297336697578430176e-01) (0, 3,47212761640548706055e-01) (1, -2,28018552064895629883e-01) (2, 3,68657559156417846680e-01) (3, 3,29661458730697631836e-01) (4, 4,49203610420227050781e-01) (5, 1,57870035618543624878e-02) (6, -4,58482831716537475586e-01) (7, -1,07248866558074951172e+00) (8, 5,89269280433654785156e-01) (9, 7,44017899036407470703e-01) (10, 1,13761998713016510010e-01) (11, 7,83926844596862792969e-01) (12, -2,23052054643630981445e-01) (13, 1,52969881892204284668e-02) (14, 9,90817606449127197266e-01) (15, -7,89688587188720703125e-01) (0, 1,30458164215087890625e+00) (1, 4,64137792587280273438e-01) (2, 4,72781360149383544922e-01) (3, 5,55553555488586425781e-01) (4, 2,43291452527046203613e-01) (5, 6,17802977561950683594e-01) (6, 6,89009428024291992188e-01) (7, 9,91737306118011474609e-01) (8, -7,31802225112915039062e-01) (9, 5,25453150272369384766e-01) (10, 6,86923980712890625000e-01) (11, 1,97615355253219604492e-01) (12, 3,19916427135467529297e-01) (13, 8,60551834106445312500e-01) (14, -3,69128316640853881836e-01) (15, -6,59112691879272460938e-01) (0, 6,60024762153625488281e-01) (1, 4,16396647691726684570e-01) (2, 1,69144585728645324707e-01) (3, 5,49834370613098144531e-01) (4, 3,97170111536979675293e-02) (5, -6,34768381714820861816e-02) (6, 1,99100724421441555023e-03) (7, 5,21008968353271484375e-01) (8, -2,82310277223587036133e-01) (9, 1,66995584964752197266e-01) (10, -6,02100677788257598877e-02) (11, 2,70340055227279663086e-01) (12, 5,26414275169372558594e-01) (13, 8,21630597114562988281e-01) (14, -1,53914704918861389160e-01) (15, -3,96203398704528808594e-01) (0, 1,88828930258750915527e-01) (1, 2,11478590965270996094e-01) (2, 4,50518935918807983398e-01) (3, -9,37265232205390930176e-02) (4, 7,76550546288490295410e-02) (5, 1,25161185860633850098e-01) (6, 1,44925275817513465881e-02) (7, 4,30648140609264373779e-02) (8, 2,05338537693023681641e-01) (9, -9,69691574573516845703e-02) (10, 6,85981810092926025391e-02) (11, 4,33718442916870117188e-01) (12, 2,07135125994682312012e-01) (13, 4,45718288421630859375e-01) (14, 2,05975070595741271973e-01) (15, -2,81553626060485839844e-01) (0, 4,15282160043716430664e-01) (1, 2,76500999927520751953e-01) (2, 5,31865190714597702026e-03) (3, -2,33916789293289184570e-02) (4, 1,87145382165908813477e-01) (5, 1,50378882884979248047e-01) (6, 2,29463100433349609375e-01) (7, -7,24231600761413574219e-02) (8, 4,89272713661193847656e-01) (9, 2,83496767282485961914e-01) (10, 4,53517794609069824219e-01) (11, 1,73673272132873535156e-01) (12, 1,66972711682319641113e-01) (13, 9,11358147859573364258e-02) (14, 4,55140233039855957031e-01) (15, 1,30184546113014221191e-01) (0, 4,13680076599121093750e-01) (1, -9,70469936728477478027e-02) (2, 5,49884557723999023438e-01) (3, 4,86434280872344970703e-01) (4, 3,04033339023590087891e-01) (5, 1,61000505089759826660e-01) (6, 1,57809376716613769531e-01) (7, -1,81240011006593704224e-02) (8, 5,12766689062118530273e-02) (9, 2,12771326303482055664e-01) (10, 6,61556661128997802734e-01) (11, 3,34412544965744018555e-01) (12, 1,88163548707962036133e-01) (13, -4,57632821053266525269e-03) (14, 5,32297611236572265625e-01) (15, -2,67411153763532638550e-02) (0, 1,03805637359619140625e+00) (1, 6,49361252784729003906e-01) (2, 6,77004814147949218750e-01) (3, 1,23225718736648559570e-01) (4, -2,19766378402709960938e-01) (5, 9,17624384164810180664e-02) (6, 2,18062430620193481445e-01) (7, 9,03818547725677490234e-01) (8, -6,62088751792907714844e-01) (9, 9,66862365603446960449e-02) (10, 3,65498274564743041992e-01) (11, 4,77103859186172485352e-01) (12, 4,92423802614212036133e-01) (13, 7,09425270557403564453e-01) (14, -4,25540238618850708008e-01) (15, -8,28371524810791015625e-01) (0, 1,63905143737792968750e-01) (1, 2,93287664651870727539e-01) (2, 4,72949087619781494141e-01) (3, -1,20342634618282318115e-01) (4, 4,36822116374969482422e-01) (5, -1,21721304953098297119e-01) (6, -1,01874724030494689941e-01) (7, 3,47109913825988769531e-01) (8, 3,93216133117675781250e-01) (9, -4,42214161157608032227e-02) (10, 2,34893828630447387695e-01) (11, 4,07737672328948974609e-01) (12, 2,40709528326988220215e-01) (13, 2,68635064363479614258e-01) (14, 4,24571961164474487305e-01) (15, -1,76549062132835388184e-01) (0, 3,57880681753158569336e-01) (1, 1,81537553668022155762e-01) (2, 2,49040961265563964844e-01) (3, 3,65625709295272827148e-01) (4, 4,29249972105026245117e-01) (5, -2,28513758629560470581e-02) (6, 3,48958298563957214355e-02) (7, 5,42020380496978759766e-01) (8, 5,97624899819493293762e-03) (9, 9,18978750705718994141e-02) (10, 3,62350493669509887695e-01) (11, 5,53480863571166992188e-01) (12, 4,09007042646408081055e-01) (13, 1,35734975337982177734e-01) (14, 5,73861658573150634766e-01) (15, -4,23099517822265625000e-01) (0, 1,86645674705505371094e+00) (1, 1,57084298133850097656e+00) (2, -5,82105070352554321289e-02) (3, -1,70471727848052978516e+00) (4, 1,41338121891021728516e+00) (5, -7,97855257987976074219e-01) (6, -2,59377151727676391602e-01) (7, -1,62373438477516174316e-01) (8, 1,21071092784404754639e-01) (9, 9,11281853914260864258e-02) (10, -7,32533395290374755859e-01) (11, 1,19578397274017333984e+00) (12, 3,54536809027194976807e-02) (13, 1,74493682384490966797e+00) (14, 1,61767256259918212891e+00) (15, 1,77927696704864501953e+00) (0, 2,42908507585525512695e-01) (1, 1,36731222271919250488e-01) (2, 2,59373873472213745117e-01) (3, 1,55788794159889221191e-01) (4, 6,09518110752105712891e-01) (5, 3,22742879390716552734e-01) (6, -1,36515468358993530273e-01) (7, 1,53712645173072814941e-01) (8, 3,11223894357681274414e-01) (9, 3,87156456708908081055e-01) (10, 3,38978976011276245117e-01) (11, 5,11966288089752197266e-01) (12, -3,22475105524063110352e-01) (13, 2,38586857914924621582e-01) (14, 9,87117171287536621094e-01) (15, 1,89763113856315612793e-01) (0, 3,44833761453628540039e-01) (1, -1,91785709466785192490e-03) (2, 1,04921400547027587891e-01) (3, 1,90890252590179443359e-01) (4, 1,66942402720451354980e-01) (5, 4,66729216277599334717e-02) (6, 3,19991677999496459961e-01) (7, 1,96911334991455078125e-01) (8, 1,64906129240989685059e-01) (9, 6,92146318033337593079e-03) (10, 1,17984138429164886475e-01) (11, 4,19576197862625122070e-01) (12, -2,57314294576644897461e-02) (13, 1,33782073855400085449e-01) (14, 3,64780098199844360352e-01) (15, -9,36281308531761169434e-02) (0, 3,60326319932937622070e-01) (1, 2,70534962415695190430e-01) (2, 3,63598555326461791992e-01) (3, 1,55911237001419067383e-01) (4, 2,90493696928024291992e-01) (5, 5,47256052494049072266e-01) (6, 4,64148640632629394531e-01) (7, 3,13586354255676269531e-01) (8, 5,71024894714355468750e-01) (9, 4,62414681911468505859e-01) (10, 4,45357292890548706055e-01) (11, 4,46205347776412963867e-01) (12, 1,23591184616088867188e-01) (13, 1,69750347733497619629e-01) (14, 5,73683321475982666016e-01) (15, 2,16381847858428955078e-01) (0, 4,11998867988586425781e-01) (1, 2,77666211128234863281e-01) (2, 1,95703864097595214844e-01) (3, 4,79075729846954345703e-01) (4, 4,96559292078018188477e-02) (5, 1,35141432285308837891e-01) (6, 2,76943892240524291992e-01) (7, 1,31249830126762390137e-01) (8, 2,71987527608871459961e-01) (9, 1,62755977362394332886e-02) (10, 5,53126968443393707275e-02) (11, 3,89893323183059692383e-01) (12, 1,00657962262630462646e-01) (13, 3,36147546768188476562e-01) (14, 7,22456812858581542969e-01) (15, 4,75237369537353515625e-02) (0, 3,45063209533691406250e-01) (1, 4,46455985307693481445e-01) (2, 3,66174101829528808594e-01) (3, -1,84401586651802062988e-01) (4, 6,09804093837738037109e-01) (5, 3,28751295804977416992e-01) (6, 3,24091672897338867188e-01) (7, -2,02352553606033325195e-01) (8, 5,66888749599456787109e-01) (9, 1,66352510452270507812e-01) (10, 8,96623507142066955566e-02) (11, 5,67117512226104736328e-01) (12, 4,78730589151382446289e-01) (13, 6,01909518241882324219e-01) (14, 8,73953938484191894531e-01) (15, -7,09785439539700746536e-04) (0, 4,06352639198303222656e-01) (1, 1,75915911793708801270e-01) (2, 3,65743815898895263672e-01) (3, 2,72645711898803710938e-01) (4, 3,39208811521530151367e-01) (5, -3,49099524319171905518e-02) (6, 4,15153382346034049988e-03) (7, -8,21877866983413696289e-02) (8, 1,15720264613628387451e-01) (9, 1,29568278789520263672e-01) (10, 2,54608541727066040039e-01) (11, 3,20285528898239135742e-01) (12, 5,43257117271423339844e-01) (13, 3,24868589639663696289e-01) (14, 2,57419615983963012695e-01) (15, -2,22683716565370559692e-02) (0, 2,77890354394912719727e-01) (1, 1,42455309629440307617e-01) (2, 2,98094868659973144531e-01) (3, -2,63789910823106765747e-02) (4, 1,71383887529373168945e-01) (5, 1,13590568304061889648e-01) (6, 1,75405964255332946777e-01) (7, 6,98041543364524841309e-02) (8, 5,51497161388397216797e-01) (9, 3,58154684305191040039e-01) (10, 1,93476244807243347168e-01) (11, 3,97260278463363647461e-01) (12, 3,91085356473922729492e-01) (13, 9,52860787510871887207e-02) (14, 3,35110336542129516602e-01) (15, -1,05473108589649200439e-01) (16, 4,71928194165229797363e-02) (17, 2,22688242793083190918e-01) (18, 2,52144187688827514648e-01) (19, 1,31525173783302307129e-01) (20, 6,76954016089439392090e-02) (21, -2,36003220081329345703e-01) (22, 2,40769401192665100098e-01) (23, -6,61911517381668090820e-02) (24, 4,93035078048706054688e-01) (25, -9,66664075851440429688e-01) (26, -1,59778761863708496094e+00) (27, 7,86375522613525390625e-01) (28, 4,06800359487533569336e-01) (29, 8,69044125080108642578e-01) (30, -7,92039752006530761719e-01) (31, -3,59877109527587890625e-01) (32, -5,43070957064628601074e-02) (33, 2,33424574136734008789e-01) (34, 3,74539285898208618164e-01) (35, -7,03703999519348144531e-01) (36, 3,93977202475070953369e-02) (37, 1,97985976934432983398e-01) (38, 2,20366859436035156250e+00) (39, 3,50961625576019287109e-01) (40, 1,60293579101562500000e-01) (41, 3,01506429910659790039e-01) (42, 2,05086603760719299316e-01) (43, 2,18576028943061828613e-01) (44, 1,03594772517681121826e-01) (45, 1,45732149481773376465e-01) (46, -1,24379980564117431641e+00) 
