FANN_FLO_2.1
num_layers=3
learning_rate=0,700000
connection_rate=1,000000
network_type=0
learning_momentum=0,000000
training_algorithm=0
train_error_function=1
train_stop_function=0
cascade_output_change_fraction=0,010000
quickprop_decay=-0,000100
quickprop_mu=1,750000
rprop_increase_factor=1,200000
rprop_decrease_factor=0,500000
rprop_delta_min=0,000000
rprop_delta_max=50,000000
rprop_delta_zero=0,100000
cascade_output_stagnation_epochs=12
cascade_candidate_change_fraction=0,010000
cascade_candidate_stagnation_epochs=12
cascade_max_out_epochs=150
cascade_min_out_epochs=50
cascade_max_cand_epochs=150
cascade_min_cand_epochs=50
cascade_num_candidate_groups=2
bit_fail_limit=3,49999994039535522461e-01
cascade_candidate_limit=1,00000000000000000000e+03
cascade_weight_multiplier=4,00000005960464477539e-01
cascade_activation_functions_count=10
cascade_activation_functions=3 5 7 8 10 11 14 15 16 17 
cascade_activation_steepnesses_count=4
cascade_activation_steepnesses=2,50000000000000000000e-01 5,00000000000000000000e-01 7,50000000000000000000e-01 1,00000000000000000000e+00 
layer_sizes=7 28 2 
scale_included=0
neurons (num_inputs, activation_function, activation_steepness)=(0, 0, 0,00000000000000000000e+00) (0, 0, 0,00000000000000000000e+00) (0, 0, 0,00000000000000000000e+00) (0, 0, 0,00000000000000000000e+00) (0, 0, 0,00000000000000000000e+00) (0, 0, 0,00000000000000000000e+00) (0, 0, 0,00000000000000000000e+00) (7, 5, 5,00000000000000000000e-01) (7, 5, 5,00000000000000000000e-01) (7, 5, 5,00000000000000000000e-01) (7, 5, 5,00000000000000000000e-01) (7, 5, 5,00000000000000000000e-01) (7, 5, 5,00000000000000000000e-01) (7, 5, 5,00000000000000000000e-01) (7, 5, 5,00000000000000000000e-01) (7, 5, 5,00000000000000000000e-01) (7, 5, 5,00000000000000000000e-01) (7, 5, 5,00000000000000000000e-01) (7, 5, 5,00000000000000000000e-01) (7, 5, 5,00000000000000000000e-01) (7, 5, 5,00000000000000000000e-01) (7, 5, 5,00000000000000000000e-01) (7, 5, 5,00000000000000000000e-01) (7, 5, 5,00000000000000000000e-01) (7, 5, 5,00000000000000000000e-01) (7, 5, 5,00000000000000000000e-01) (7, 5, 5,00000000000000000000e-01) (7, 5, 5,00000000000000000000e-01) (7, 5, 5,00000000000000000000e-01) (7, 5, 5,00000000000000000000e-01) (7, 5, 5,00000000000000000000e-01) (7, 5, 5,00000000000000000000e-01) (7, 5, 5,00000000000000000000e-01) (7, 5, 5,00000000000000000000e-01) (0, 5, 0,00000000000000000000e+00) (28, 5, 5,00000000000000000000e-01) (0, 5, 0,00000000000000000000e+00) 
connections (connected_to_neuron, weight)=(0, -5,29930973052978515625e+00) (1, 1,30420899391174316406e+00) (2, 2,47270917892456054688e+00) (3, -1,74600756168365478516e+00) (4, 2,43597412109375000000e+00) (5, 5,60519039630889892578e-01) (6, 1,59557676315307617188e+00) (0, 2,88906067609786987305e-01) (1, -4,71910268068313598633e-01) (2, 3,31911444664001464844e-01) (3, -1,27988785505294799805e-01) (4, -3,71612191200256347656e-01) (5, -1,05575352907180786133e-01) (6, 8,85018035769462585449e-02) (0, 8,46932590007781982422e-01) (1, -6,76236820220947265625e+00) (2, 9,34108734130859375000e-01) (3, 5,46658325195312500000e+00) (4, 3,98507428169250488281e+00) (5, -2,04564309120178222656e+00) (6, -6,27847433090209960938e+00) (0, 2,81521379947662353516e-01) (1, -4,21323746442794799805e-01) (2, 2,54750847816467285156e-01) (3, -2,00076594948768615723e-01) (4, 2,86366373300552368164e-01) (5, -6,14554770290851593018e-02) (6, -1,03078246116638183594e-01) (0, -3,75722408294677734375e-01) (1, -3,07004958391189575195e-01) (2, 4,96520787477493286133e-01) (3, -6,88551589846611022949e-02) (4, -1,13072443008422851562e+00) (5, 3,45100909471511840820e-01) (6, -1,54772818088531494141e-01) (0, -3,06142903864383697510e-02) (1, 4,37833696603775024414e-01) (2, -2,21684247255325317383e-01) (3, 1,99921444058418273926e-01) (4, -4,67992007732391357422e-01) (5, 1,31656527519226074219e-01) (6, 8,89650359749794006348e-02) (0, 1,55505955219268798828e-01) (1, -2,30892971158027648926e-01) (2, -1,44612789154052734375e-01) (3, 1,03216558694839477539e-01) (4, -1,10327854752540588379e-01) (5, 2,53332525491714477539e-01) (6, -2,78921071439981460571e-02) (0, -1,72948107123374938965e-01) (1, 3,30135107040405273438e-01) (2, -8,59851717948913574219e-01) (3, 3,58004239387810230255e-03) (4, 5,06095230579376220703e-01) (5, 3,51362347602844238281e-01) (6, -3,63928340375423431396e-02) (0, -2,67267853021621704102e-01) (1, 1,91710457205772399902e-01) (2, 5,38581842556595802307e-03) (3, 7,00316429138183593750e-02) (4, -6,79428994655609130859e-01) (5, 2,51794993877410888672e-01) (6, 1,03178724646568298340e-01) (0, 2,05299928784370422363e-01) (1, -3,78921180963516235352e-01) (2, 4,80970531702041625977e-01) (3, 1,38931185007095336914e-01) (4, -2,95948356389999389648e-01) (5, -1,56184285879135131836e-01) (6, -7,40023553371429443359e-02) (0, 1,35024134069681167603e-02) (1, -2,37343102693557739258e-01) (2, 4,87417161464691162109e-01) (3, -1,00426666438579559326e-01) (4, -1,15511469542980194092e-01) (5, -1,01938739418983459473e-01) (6, -3,60168479382991790771e-02) (0, 3,08617621660232543945e-01) (1, -5,61149597167968750000e-01) (2, 6,78346455097198486328e-01) (3, 1,67181402444839477539e-01) (4, -7,43336677551269531250e-01) (5, -2,22301200032234191895e-01) (6, -2,68689990043640136719e-02) (0, -8,76886725425720214844e-01) (1, -3,11531037092208862305e-01) (2, 3,97228360176086425781e-01) (3, -3,99654477834701538086e-01) (4, -8,57045590877532958984e-01) (5, 3,94943833351135253906e-01) (6, -3,60523499548435211182e-02) (0, 7,92079418897628784180e-02) (1, -4,62135016918182373047e-01) (2, 6,34905219078063964844e-01) (3, -1,32999857887625694275e-02) (4, -6,33543968200683593750e-01) (5, 1,87780056148767471313e-02) (6, -1,59733574837446212769e-02) (0, -3,32190918922424316406e+00) (1, 4,77088004350662231445e-01) (2, -4,74700421094894409180e-01) (3, -1,05202507972717285156e+00) (4, -2,16334939002990722656e+00) (5, 1,01914966106414794922e+00) (6, 1,78722882270812988281e+00) (0, -9,04427826404571533203e-01) (1, 4,13586169481277465820e-01) (2, -4,49140667915344238281e-01) (3, 7,65720158815383911133e-02) (4, -3,20916354656219482422e-01) (5, 6,26799166202545166016e-01) (6, 2,65602678060531616211e-01) (0, -2,10073590278625488281e-01) (1, 3,23652297258377075195e-01) (2, 5,91321289539337158203e-02) (3, 1,98583811521530151367e-01) (4, -8,39083909988403320312e-01) (5, 4,03383970260620117188e-01) (6, -4,41965162754058837891e-02) (0, 7,04545080661773681641e-01) (1, -7,26750791072845458984e-01) (2, 6,08278155326843261719e-01) (3, -3,12153041362762451172e-01) (4, -2,32951745390892028809e-01) (5, -3,20217192173004150391e-01) (6, -3,51194143295288085938e-02) (0, 6,58638358116149902344e-01) (1, -4,24168348312377929688e-01) (2, 3,67968618869781494141e-01) (3, -1,96429461240768432617e-01) (4, 1,50077030062675476074e-01) (5, -3,38432908058166503906e-01) (6, -8,44466313719749450684e-02) (0, -1,72162950038909912109e+00) (1, 1,19414103031158447266e+00) (2, -5,06555557250976562500e-01) (3, -1,14384442567825317383e-01) (4, -5,21121978759765625000e-01) (5, 9,58066582679748535156e-01) (6, 9,00639712810516357422e-01) (0, -5,28985917568206787109e-01) (1, 6,35070741176605224609e-01) (2, -4,27941751480102539062e+00) (3, -2,90497392416000366211e-01) (4, 1,49745166301727294922e-01) (5, 4,73554086685180664062e+00) (6, 2,07097983360290527344e+00) (0, -3,08998227119445800781e-01) (1, 2,39169910550117492676e-01) (2, -5,37584662437438964844e-01) (3, -3,30403782427310943604e-02) (4, 6,95351719856262207031e-01) (5, 2,10012383759021759033e-02) (6, -3,75001691281795501709e-02) (0, -4,47898879647254943848e-02) (1, -2,03125532716512680054e-02) (2, -1,52651965618133544922e-01) (3, -4,22594286501407623291e-02) (4, -4,89946305751800537109e-02) (5, 3,54750543832778930664e-01) (6, -3,45411524176597595215e-02) (0, 4,16652590036392211914e-01) (1, -6,94549024105072021484e-01) (2, 7,64423906803131103516e-01) (3, -4,20582413673400878906e-01) (4, -2,73184835910797119141e-01) (5, 9,10955816507339477539e-02) (6, -8,95565003156661987305e-02) (0, 3,43922227621078491211e-01) (1, -5,44913768768310546875e-01) (2, 3,21070224046707153320e-01) (3, 8,77480357885360717773e-02) (4, -8,06152045726776123047e-01) (5, 2,00034856796264648438e-01) (6, 8,79328772425651550293e-02) (0, 6,39149665832519531250e-01) (1, -2,77113318443298339844e-01) (2, -2,93141990900039672852e-01) (3, 7,10039883852005004883e-02) (4, 1,25435426831245422363e-01) (5, -9,18695926666259765625e-02) (6, 6,69516399502754211426e-02) (0, -1,95700192451477050781e+00) (1, 1,08917272090911865234e+00) (2, -1,02535319328308105469e+00) (3, -3,02729070186614990234e-01) (4, 3,49613666534423828125e-01) (5, 1,62266886234283447266e+00) (6, 1,28651335835456848145e-01) (7, 1,34933030605316162109e+00) (8, 3,45325648784637451172e-01) (9, -3,76912140846252441406e+00) (10, -3,84530387818813323975e-02) (11, 9,10183846950531005859e-01) (12, 1,18228927254676818848e-01) (13, -3,60905639827251434326e-02) (14, -6,46092593669891357422e-01) (15, 3,74405115842819213867e-01) (16, 3,27489286661148071289e-01) (17, 2,83048450946807861328e-01) (18, 6,71632468700408935547e-01) (19, 7,74685680866241455078e-01) (20, 6,19268715381622314453e-01) (21, -1,64173686504364013672e+00) (22, -9,45684686303138732910e-02) (23, 4,45183932781219482422e-01) (24, 4,23083722591400146484e-01) (25, 7,65078216791152954102e-02) (26, -7,77967631816864013672e-01) (27, 2,63669800758361816406e+00) (28, -5,78770458698272705078e-01) (29, -3,39494161307811737061e-02) (30, 5,04320740699768066406e-01) (31, 5,30653238296508789062e-01) (32, -2,61382430791854858398e-01) (33, -1,32075417041778564453e+00) (34, -3,46585536003112792969e+00) 
